<?xml version="1.0"?>
<opencv_storage>
<cascade>
  <stageType>BOOST</stageType>
  <featureType>HAAR</featureType>
  <height>50</height>
  <width>50</width>
  <stageParams>
    <boostType>GAB</boostType>
    <minHitRate>9.9500000476837158e-01</minHitRate>
    <maxFalseAlarm>5.0000000000000000e-01</maxFalseAlarm>
    <weightTrimRate>9.4999998807907104e-01</weightTrimRate>
    <maxDepth>1</maxDepth>
    <maxWeakCount>100</maxWeakCount></stageParams>
  <featureParams>
    <maxCatCount>0</maxCatCount>
    <featSize>1</featSize>
    <mode>BASIC</mode></featureParams>
  <stageNum>4</stageNum>
  <stages>
    <!-- stage 0 -->
    <_>
      <maxWeakCount>1</maxWeakCount>
      <stageThreshold>9.2307692766189575e-01</stageThreshold>
      <weakClassifiers>
        <_>
          <internalNodes>
            0 -1 1 -5.1121103763580322e-01</internalNodes>
          <leafValues>
            9.2307692766189575e-01 -1.</leafValues></_></weakClassifiers></_>
    <!-- stage 1 -->
    <_>
      <maxWeakCount>1</maxWeakCount>
      <stageThreshold>9.2307692766189575e-01</stageThreshold>
      <weakClassifiers>
        <_>
          <internalNodes>
            0 -1 0 -1.5352271497249603e-01</internalNodes>
          <leafValues>
            9.2307692766189575e-01 -1.</leafValues></_></weakClassifiers></_>
    <!-- stage 2 -->
    <_>
      <maxWeakCount>2</maxWeakCount>
      <stageThreshold>5.8252427726984024e-02</stageThreshold>
      <weakClassifiers>
        <_>
          <internalNodes>
            0 -1 4 -6.7725835833698511e-04</internalNodes>
          <leafValues>
            1. -9.4174754619598389e-01</leafValues></_>
        <_>
          <internalNodes>
            0 -1 5 -1.9779574358835816e-04</internalNodes>
          <leafValues>
            1. -9.2727154493331909e-01</leafValues></_></weakClassifiers></_>
    <!-- stage 3 -->
    <_>
      <maxWeakCount>2</maxWeakCount>
      <stageThreshold>-1.1177312582731247e-01</stageThreshold>
      <weakClassifiers>
        <_>
          <internalNodes>
            0 -1 2 4.9184840463567525e-05</internalNodes>
          <leafValues>
            -9.6039605140686035e-01 9.1666668653488159e-01</leafValues></_>
        <_>
          <internalNodes>
            0 -1 3 -7.2090849280357361e-02</internalNodes>
          <leafValues>
            8.4862291812896729e-01 -9.7982794046401978e-01</leafValues></_></weakClassifiers></_></stages>
  <features>
    <_>
      <rects>
        <_>
          2 1 34 42 -1.</_>
        <_>
          2 15 34 14 3.</_></rects>
      <tilted>0</tilted></_>
    <_>
      <rects>
        <_>
          2 13 48 32 -1.</_>
        <_>
          18 13 16 32 3.</_></rects>
      <tilted>0</tilted></_>
    <_>
      <rects>
        <_>
          3 0 2 10 -1.</_>
        <_>
          3 0 1 5 2.</_>
        <_>
          4 5 1 5 2.</_></rects>
      <tilted>0</tilted></_>
    <_>
      <rects>
        <_>
          16 1 29 18 -1.</_>
        <_>
          16 10 29 9 2.</_></rects>
      <tilted>0</tilted></_>
    <_>
      <rects>
        <_>
          25 39 3 8 -1.</_>
        <_>
          25 43 3 4 2.</_></rects>
      <tilted>0</tilted></_>
    <_>
      <rects>
        <_>
          31 37 4 2 -1.</_>
        <_>
          33 37 2 2 2.</_></rects>
      <tilted>0</tilted></_></features></cascade>
</opencv_storage>
